digraph Tree {
node [shape=box, style="filled, rounded", color="black", fontname="helvetica"] ;
edge [fontname="helvetica"] ;
0 [label="mean radius <= 15.045\nentropy = 0.953\nsamples = 569\nvalue = [212, 357]\nclass = benign", fillcolor="#afd7f4"] ;
1 [label="mean texture <= 19.61\nentropy = 0.553\nsamples = 397\nvalue = [51, 346]\nclass = benign", fillcolor="#56abe9"] ;
0 -> 1 [labeldistance=2.5, labelangle=45, headlabel="True"] ;
2 [label="mean texture <= 15.535\nentropy = 0.265\nsamples = 266\nvalue = [12, 254]\nclass = benign", fillcolor="#42a2e6"] ;
1 -> 2 ;
3 [label="entropy = 0.0\nsamples = 97\nvalue = [0, 97]\nclass = benign", fillcolor="#399de5"] ;
2 -> 3 ;
4 [label="mean radius <= 11.07\nentropy = 0.37\nsamples = 169\nvalue = [12, 157]\nclass = benign", fillcolor="#48a4e7"] ;
2 -> 4 ;
5 [label="entropy = 0.0\nsamples = 38\nvalue = [0, 38]\nclass = benign", fillcolor="#399de5"] ;
4 -> 5 ;
6 [label="mean texture <= 15.58\nentropy = 0.442\nsamples = 131\nvalue = [12, 119]\nclass = benign", fillcolor="#4da7e8"] ;
4 -> 6 ;
7 [label="entropy = 0.0\nsamples = 1\nvalue = [1, 0]\nclass = malignant", fillcolor="#e58139"] ;
6 -> 7 ;
8 [label="mean radius <= 11.105\nentropy = 0.418\nsamples = 130\nvalue = [11, 119]\nclass = benign", fillcolor="#4ba6e7"] ;
6 -> 8 ;
9 [label="entropy = 0.0\nsamples = 1\nvalue = [1, 0]\nclass = malignant", fillcolor="#e58139"] ;
8 -> 9 ;
10 [label="entropy = 0.393\nsamples = 129\nvalue = [10, 119]\nclass = benign", fillcolor="#4aa5e7"] ;
8 -> 10 ;
11 [label="mean radius <= 12.305\nentropy = 0.878\nsamples = 131\nvalue = [39, 92]\nclass = benign", fillcolor="#8dc7f0"] ;
1 -> 11 ;
12 [label="mean texture <= 21.38\nentropy = 0.229\nsamples = 54\nvalue = [2, 52]\nclass = benign", fillcolor="#41a1e6"] ;
11 -> 12 ;
13 [label="mean texture <= 21.315\nentropy = 0.439\nsamples = 22\nvalue = [2, 20]\nclass = benign", fillcolor="#4da7e8"] ;
12 -> 13 ;
14 [label="mean radius <= 11.38\nentropy = 0.276\nsamples = 21\nvalue = [1, 20]\nclass = benign", fillcolor="#43a2e6"] ;
13 -> 14 ;
15 [label="entropy = 0.0\nsamples = 13\nvalue = [0, 13]\nclass = benign", fillcolor="#399de5"] ;
14 -> 15 ;
16 [label="entropy = 0.544\nsamples = 8\nvalue = [1, 7]\nclass = benign", fillcolor="#55abe9"] ;
14 -> 16 ;
17 [label="entropy = 0.0\nsamples = 1\nvalue = [1, 0]\nclass = malignant", fillcolor="#e58139"] ;
13 -> 17 ;
18 [label="entropy = 0.0\nsamples = 32\nvalue = [0, 32]\nclass = benign", fillcolor="#399de5"] ;
12 -> 18 ;
19 [label="mean texture <= 27.695\nentropy = 0.999\nsamples = 77\nvalue = [37.0, 40.0]\nclass = benign", fillcolor="#f0f8fd"] ;
11 -> 19 ;
20 [label="mean radius <= 13.26\nentropy = 0.999\nsamples = 71\nvalue = [37, 34]\nclass = malignant", fillcolor="#fdf5ef"] ;
19 -> 20 ;
21 [label="mean texture <= 21.805\nentropy = 0.902\nsamples = 22\nvalue = [7.0, 15.0]\nclass = benign", fillcolor="#95cbf1"] ;
20 -> 21 ;
22 [label="entropy = 0.0\nsamples = 9\nvalue = [0, 9]\nclass = benign", fillcolor="#399de5"] ;
21 -> 22 ;
23 [label="entropy = 0.996\nsamples = 13\nvalue = [7, 6]\nclass = malignant", fillcolor="#fbede3"] ;
21 -> 23 ;
24 [label="mean texture <= 25.31\nentropy = 0.963\nsamples = 49\nvalue = [30, 19]\nclass = malignant", fillcolor="#f5d1b6"] ;
20 -> 24 ;
25 [label="entropy = 0.939\nsamples = 45\nvalue = [29.0, 16.0]\nclass = malignant", fillcolor="#f3c7a6"] ;
24 -> 25 ;
26 [label="entropy = 0.811\nsamples = 4\nvalue = [1, 3]\nclass = benign", fillcolor="#7bbeee"] ;
24 -> 26 ;
27 [label="entropy = 0.0\nsamples = 6\nvalue = [0, 6]\nclass = benign", fillcolor="#399de5"] ;
19 -> 27 ;
28 [label="mean texture <= 16.395\nentropy = 0.343\nsamples = 172\nvalue = [161, 11]\nclass = malignant", fillcolor="#e78a47"] ;
0 -> 28 [labeldistance=2.5, labelangle=-45, headlabel="False"] ;
29 [label="mean radius <= 17.92\nentropy = 1.0\nsamples = 18\nvalue = [9, 9]\nclass = malignant", fillcolor="#ffffff"] ;
28 -> 29 ;
30 [label="mean texture <= 15.605\nentropy = 0.89\nsamples = 13\nvalue = [4, 9]\nclass = benign", fillcolor="#91c9f1"] ;
29 -> 30 ;
31 [label="mean texture <= 14.955\nentropy = 0.971\nsamples = 10\nvalue = [4, 6]\nclass = benign", fillcolor="#bddef6"] ;
30 -> 31 ;
32 [label="mean radius <= 15.585\nentropy = 0.811\nsamples = 8\nvalue = [2, 6]\nclass = benign", fillcolor="#7bbeee"] ;
31 -> 32 ;
33 [label="entropy = 1.0\nsamples = 4\nvalue = [2, 2]\nclass = malignant", fillcolor="#ffffff"] ;
32 -> 33 ;
34 [label="entropy = 0.0\nsamples = 4\nvalue = [0, 4]\nclass = benign", fillcolor="#399de5"] ;
32 -> 34 ;
35 [label="entropy = 0.0\nsamples = 2\nvalue = [2, 0]\nclass = malignant", fillcolor="#e58139"] ;
31 -> 35 ;
36 [label="entropy = 0.0\nsamples = 3\nvalue = [0, 3]\nclass = benign", fillcolor="#399de5"] ;
30 -> 36 ;
37 [label="entropy = 0.0\nsamples = 5\nvalue = [5, 0]\nclass = malignant", fillcolor="#e58139"] ;
29 -> 37 ;
38 [label="mean texture <= 19.47\nentropy = 0.1\nsamples = 154\nvalue = [152, 2]\nclass = malignant", fillcolor="#e5833c"] ;
28 -> 38 ;
39 [label="mean texture <= 19.42\nentropy = 0.31\nsamples = 36\nvalue = [34, 2]\nclass = malignant", fillcolor="#e78845"] ;
38 -> 39 ;
40 [label="mean radius <= 16.64\nentropy = 0.187\nsamples = 35\nvalue = [34, 1]\nclass = malignant", fillcolor="#e6853f"] ;
39 -> 40 ;
41 [label="mean radius <= 16.37\nentropy = 0.469\nsamples = 10\nvalue = [9, 1]\nclass = malignant", fillcolor="#e88f4f"] ;
40 -> 41 ;
42 [label="entropy = 0.0\nsamples = 9\nvalue = [9, 0]\nclass = malignant", fillcolor="#e58139"] ;
41 -> 42 ;
43 [label="entropy = 0.0\nsamples = 1\nvalue = [0, 1]\nclass = benign", fillcolor="#399de5"] ;
41 -> 43 ;
44 [label="entropy = 0.0\nsamples = 25\nvalue = [25, 0]\nclass = malignant", fillcolor="#e58139"] ;
40 -> 44 ;
45 [label="entropy = 0.0\nsamples = 1\nvalue = [0, 1]\nclass = benign", fillcolor="#399de5"] ;
39 -> 45 ;
46 [label="entropy = 0.0\nsamples = 118\nvalue = [118, 0]\nclass = malignant", fillcolor="#e58139"] ;
38 -> 46 ;
}