digraph Tree {
node [shape=box, style="filled, rounded", color="black", fontname="helvetica"] ;
edge [fontname="helvetica"] ;
0 [label="mean perimeter <= 98.43\ngini = 0.46\nsamples = 426\nvalue = [153, 273]\nclass = benign", fillcolor="#a8d4f4"] ;
1 [label="mean smoothness <= 0.109\ngini = 0.201\nsamples = 300\nvalue = [34, 266]\nclass = benign", fillcolor="#52aae8"] ;
0 -> 1 [labeldistance=2.5, labelangle=45, headlabel="True"] ;
2 [label="mean texture <= 19.61\ngini = 0.123\nsamples = 259\nvalue = [17, 242]\nclass = benign", fillcolor="#47a4e7"] ;
1 -> 2 ;
3 [label="mean area <= 695.7\ngini = 0.011\nsamples = 179\nvalue = [1, 178]\nclass = benign", fillcolor="#3a9ee5"] ;
2 -> 3 ;
4 [label="gini = 0.0\nsamples = 176\nvalue = [0, 176]\nclass = benign", fillcolor="#399de5"] ;
3 -> 4 ;
5 [label="gini = 0.444\nsamples = 3\nvalue = [1, 2]\nclass = benign", fillcolor="#9ccef2"] ;
3 -> 5 ;
6 [label="mean perimeter <= 85.25\ngini = 0.32\nsamples = 80\nvalue = [16, 64]\nclass = benign", fillcolor="#6ab6ec"] ;
2 -> 6 ;
7 [label="gini = 0.08\nsamples = 48\nvalue = [2, 46]\nclass = benign", fillcolor="#42a1e6"] ;
6 -> 7 ;
8 [label="gini = 0.492\nsamples = 32\nvalue = [14, 18]\nclass = benign", fillcolor="#d3e9f9"] ;
6 -> 8 ;
9 [label="mean area <= 524.8\ngini = 0.485\nsamples = 41\nvalue = [17, 24]\nclass = benign", fillcolor="#c5e2f7"] ;
1 -> 9 ;
10 [label="mean texture <= 18.515\ngini = 0.328\nsamples = 29\nvalue = [6, 23]\nclass = benign", fillcolor="#6db7ec"] ;
9 -> 10 ;
11 [label="gini = 0.095\nsamples = 20\nvalue = [1, 19]\nclass = benign", fillcolor="#43a2e6"] ;
10 -> 11 ;
12 [label="gini = 0.494\nsamples = 9\nvalue = [5, 4]\nclass = malignant", fillcolor="#fae6d7"] ;
10 -> 12 ;
13 [label="mean texture <= 15.4\ngini = 0.153\nsamples = 12\nvalue = [11, 1]\nclass = malignant", fillcolor="#e78c4b"] ;
9 -> 13 ;
14 [label="gini = 0.0\nsamples = 1\nvalue = [0, 1]\nclass = benign", fillcolor="#399de5"] ;
13 -> 14 ;
15 [label="gini = 0.0\nsamples = 11\nvalue = [11, 0]\nclass = malignant", fillcolor="#e58139"] ;
13 -> 15 ;
16 [label="mean texture <= 16.395\ngini = 0.105\nsamples = 126\nvalue = [119, 7]\nclass = malignant", fillcolor="#e78845"] ;
0 -> 16 [labeldistance=2.5, labelangle=-45, headlabel="False"] ;
17 [label="mean perimeter <= 114.8\ngini = 0.496\nsamples = 11\nvalue = [6, 5]\nclass = malignant", fillcolor="#fbeade"] ;
16 -> 17 ;
18 [label="mean smoothness <= 0.095\ngini = 0.469\nsamples = 8\nvalue = [3, 5]\nclass = benign", fillcolor="#b0d8f5"] ;
17 -> 18 ;
19 [label="gini = 0.0\nsamples = 3\nvalue = [0, 3]\nclass = benign", fillcolor="#399de5"] ;
18 -> 19 ;
20 [label="gini = 0.48\nsamples = 5\nvalue = [3, 2]\nclass = malignant", fillcolor="#f6d5bd"] ;
18 -> 20 ;
21 [label="gini = 0.0\nsamples = 3\nvalue = [3, 0]\nclass = malignant", fillcolor="#e58139"] ;
17 -> 21 ;
22 [label="mean smoothness <= 0.075\ngini = 0.034\nsamples = 115\nvalue = [113, 2]\nclass = malignant", fillcolor="#e5833d"] ;
16 -> 22 ;
23 [label="mean radius <= 17.46\ngini = 0.5\nsamples = 2\nvalue = [1, 1]\nclass = malignant", fillcolor="#ffffff"] ;
22 -> 23 ;
24 [label="gini = 0.0\nsamples = 1\nvalue = [0, 1]\nclass = benign", fillcolor="#399de5"] ;
23 -> 24 ;
25 [label="gini = 0.0\nsamples = 1\nvalue = [1, 0]\nclass = malignant", fillcolor="#e58139"] ;
23 -> 25 ;
26 [label="mean texture <= 18.405\ngini = 0.018\nsamples = 113\nvalue = [112, 1]\nclass = malignant", fillcolor="#e5823b"] ;
22 -> 26 ;
27 [label="gini = 0.111\nsamples = 17\nvalue = [16, 1]\nclass = malignant", fillcolor="#e78945"] ;
26 -> 27 ;
28 [label="gini = 0.0\nsamples = 96\nvalue = [96, 0]\nclass = malignant", fillcolor="#e58139"] ;
26 -> 28 ;
}