digraph Tree {
node [shape=box, style="filled, rounded", color="black", fontname="helvetica"] ;
edge [fontname="helvetica"] ;
0 [label="mean radius <= 15.045\nentropy = 0.953\nsamples = 569\nvalue = [212, 357]\nclass = benign", fillcolor="#afd7f4"] ;
1 [label="mean texture <= 19.61\nentropy = 0.553\nsamples = 397\nvalue = [51, 346]\nclass = benign", fillcolor="#56abe9"] ;
0 -> 1 [labeldistance=2.5, labelangle=45, headlabel="True"] ;
2 [label="mean texture <= 15.535\nentropy = 0.265\nsamples = 266\nvalue = [12, 254]\nclass = benign", fillcolor="#42a2e6"] ;
1 -> 2 ;
3 [label="entropy = 0.0\nsamples = 97\nvalue = [0, 97]\nclass = benign", fillcolor="#399de5"] ;
2 -> 3 ;
4 [label="mean radius <= 11.07\nentropy = 0.37\nsamples = 169\nvalue = [12, 157]\nclass = benign", fillcolor="#48a4e7"] ;
2 -> 4 ;
5 [label="entropy = 0.0\nsamples = 38\nvalue = [0, 38]\nclass = benign", fillcolor="#399de5"] ;
4 -> 5 ;
6 [label="mean radius <= 11.105\nentropy = 0.442\nsamples = 131\nvalue = [12, 119]\nclass = benign", fillcolor="#4da7e8"] ;
4 -> 6 ;
7 [label="entropy = 0.0\nsamples = 1\nvalue = [1, 0]\nclass = malignant", fillcolor="#e58139"] ;
6 -> 7 ;
8 [label="mean texture <= 15.58\nentropy = 0.418\nsamples = 130\nvalue = [11, 119]\nclass = benign", fillcolor="#4ba6e7"] ;
6 -> 8 ;
9 [label="entropy = 0.0\nsamples = 1\nvalue = [1, 0]\nclass = malignant", fillcolor="#e58139"] ;
8 -> 9 ;
10 [label="mean radius <= 13.79\nentropy = 0.393\nsamples = 129\nvalue = [10, 119]\nclass = benign", fillcolor="#4aa5e7"] ;
8 -> 10 ;
11 [label="mean radius <= 11.845\nentropy = 0.28\nsamples = 103\nvalue = [5, 98]\nclass = benign", fillcolor="#43a2e6"] ;
10 -> 11 ;
12 [label="mean radius <= 11.755\nentropy = 0.491\nsamples = 28\nvalue = [3, 25]\nclass = benign", fillcolor="#51a9e8"] ;
11 -> 12 ;
13 [label="entropy = 0.0\nsamples = 22\nvalue = [0, 22]\nclass = benign", fillcolor="#399de5"] ;
12 -> 13 ;
14 [label="mean radius <= 11.78\nentropy = 1.0\nsamples = 6\nvalue = [3, 3]\nclass = malignant", fillcolor="#ffffff"] ;
12 -> 14 ;
15 [label="entropy = 0.0\nsamples = 1\nvalue = [1, 0]\nclass = malignant", fillcolor="#e58139"] ;
14 -> 15 ;
16 [label="entropy = 0.971\nsamples = 5\nvalue = [2, 3]\nclass = benign", fillcolor="#bddef6"] ;
14 -> 16 ;
17 [label="mean texture <= 15.705\nentropy = 0.177\nsamples = 75\nvalue = [2, 73]\nclass = benign", fillcolor="#3ea0e6"] ;
11 -> 17 ;
18 [label="mean radius <= 12.67\nentropy = 0.811\nsamples = 4\nvalue = [1, 3]\nclass = benign", fillcolor="#7bbeee"] ;
17 -> 18 ;
19 [label="entropy = 1.0\nsamples = 2\nvalue = [1, 1]\nclass = malignant", fillcolor="#ffffff"] ;
18 -> 19 ;
20 [label="entropy = 0.0\nsamples = 2\nvalue = [0, 2]\nclass = benign", fillcolor="#399de5"] ;
18 -> 20 ;
21 [label="mean texture <= 18.63\nentropy = 0.107\nsamples = 71\nvalue = [1, 70]\nclass = benign", fillcolor="#3c9ee5"] ;
17 -> 21 ;
22 [label="entropy = 0.0\nsamples = 58\nvalue = [0, 58]\nclass = benign", fillcolor="#399de5"] ;
21 -> 22 ;
23 [label="entropy = 0.391\nsamples = 13\nvalue = [1, 12]\nclass = benign", fillcolor="#49a5e7"] ;
21 -> 23 ;
24 [label="mean texture <= 17.615\nentropy = 0.706\nsamples = 26\nvalue = [5, 21]\nclass = benign", fillcolor="#68b4eb"] ;
10 -> 24 ;
25 [label="mean radius <= 13.825\nentropy = 0.831\nsamples = 19\nvalue = [5, 14]\nclass = benign", fillcolor="#80c0ee"] ;
24 -> 25 ;
26 [label="entropy = 0.0\nsamples = 1\nvalue = [1, 0]\nclass = malignant", fillcolor="#e58139"] ;
25 -> 26 ;
27 [label="mean texture <= 16.645\nentropy = 0.764\nsamples = 18\nvalue = [4, 14]\nclass = benign", fillcolor="#72b9ec"] ;
25 -> 27 ;
28 [label="entropy = 0.0\nsamples = 7\nvalue = [0, 7]\nclass = benign", fillcolor="#399de5"] ;
27 -> 28 ;
29 [label="entropy = 0.946\nsamples = 11\nvalue = [4, 7]\nclass = benign", fillcolor="#aad5f4"] ;
27 -> 29 ;
30 [label="entropy = 0.0\nsamples = 7\nvalue = [0, 7]\nclass = benign", fillcolor="#399de5"] ;
24 -> 30 ;
31 [label="mean radius <= 12.305\nentropy = 0.878\nsamples = 131\nvalue = [39, 92]\nclass = benign", fillcolor="#8dc7f0"] ;
1 -> 31 ;
32 [label="mean texture <= 21.38\nentropy = 0.229\nsamples = 54\nvalue = [2, 52]\nclass = benign", fillcolor="#41a1e6"] ;
31 -> 32 ;
33 [label="mean texture <= 21.315\nentropy = 0.439\nsamples = 22\nvalue = [2, 20]\nclass = benign", fillcolor="#4da7e8"] ;
32 -> 33 ;
34 [label="mean radius <= 11.38\nentropy = 0.276\nsamples = 21\nvalue = [1, 20]\nclass = benign", fillcolor="#43a2e6"] ;
33 -> 34 ;
35 [label="entropy = 0.0\nsamples = 13\nvalue = [0, 13]\nclass = benign", fillcolor="#399de5"] ;
34 -> 35 ;
36 [label="mean radius <= 11.435\nentropy = 0.544\nsamples = 8\nvalue = [1, 7]\nclass = benign", fillcolor="#55abe9"] ;
34 -> 36 ;
37 [label="entropy = 0.0\nsamples = 1\nvalue = [1, 0]\nclass = malignant", fillcolor="#e58139"] ;
36 -> 37 ;
38 [label="entropy = 0.0\nsamples = 7\nvalue = [0, 7]\nclass = benign", fillcolor="#399de5"] ;
36 -> 38 ;
39 [label="entropy = 0.0\nsamples = 1\nvalue = [1, 0]\nclass = malignant", fillcolor="#e58139"] ;
33 -> 39 ;
40 [label="entropy = 0.0\nsamples = 32\nvalue = [0, 32]\nclass = benign", fillcolor="#399de5"] ;
32 -> 40 ;
41 [label="mean texture <= 27.695\nentropy = 0.999\nsamples = 77\nvalue = [37.0, 40.0]\nclass = benign", fillcolor="#f0f8fd"] ;
31 -> 41 ;
42 [label="mean radius <= 13.26\nentropy = 0.999\nsamples = 71\nvalue = [37, 34]\nclass = malignant", fillcolor="#fdf5ef"] ;
41 -> 42 ;
43 [label="mean texture <= 21.805\nentropy = 0.902\nsamples = 22\nvalue = [7.0, 15.0]\nclass = benign", fillcolor="#95cbf1"] ;
42 -> 43 ;
44 [label="entropy = 0.0\nsamples = 9\nvalue = [0, 9]\nclass = benign", fillcolor="#399de5"] ;
43 -> 44 ;
45 [label="mean texture <= 22.02\nentropy = 0.996\nsamples = 13\nvalue = [7, 6]\nclass = malignant", fillcolor="#fbede3"] ;
43 -> 45 ;
46 [label="entropy = 0.0\nsamples = 2\nvalue = [2, 0]\nclass = malignant", fillcolor="#e58139"] ;
45 -> 46 ;
47 [label="mean radius <= 12.915\nentropy = 0.994\nsamples = 11\nvalue = [5, 6]\nclass = benign", fillcolor="#deeffb"] ;
45 -> 47 ;
48 [label="mean texture <= 22.275\nentropy = 0.863\nsamples = 7\nvalue = [5, 2]\nclass = malignant", fillcolor="#efb388"] ;
47 -> 48 ;
49 [label="entropy = 0.0\nsamples = 1\nvalue = [0, 1]\nclass = benign", fillcolor="#399de5"] ;
48 -> 49 ;
50 [label="mean radius <= 12.65\nentropy = 0.65\nsamples = 6\nvalue = [5, 1]\nclass = malignant", fillcolor="#ea9a61"] ;
48 -> 50 ;
51 [label="entropy = 0.918\nsamples = 3\nvalue = [2, 1]\nclass = malignant", fillcolor="#f2c09c"] ;
50 -> 51 ;
52 [label="entropy = 0.0\nsamples = 3\nvalue = [3, 0]\nclass = malignant", fillcolor="#e58139"] ;
50 -> 52 ;
53 [label="entropy = 0.0\nsamples = 4\nvalue = [0, 4]\nclass = benign", fillcolor="#399de5"] ;
47 -> 53 ;
54 [label="mean texture <= 25.31\nentropy = 0.963\nsamples = 49\nvalue = [30, 19]\nclass = malignant", fillcolor="#f5d1b6"] ;
42 -> 54 ;
55 [label="mean texture <= 19.64\nentropy = 0.939\nsamples = 45\nvalue = [29.0, 16.0]\nclass = malignant", fillcolor="#f3c7a6"] ;
54 -> 55 ;
56 [label="entropy = 0.0\nsamples = 2\nvalue = [2, 0]\nclass = malignant", fillcolor="#e58139"] ;
55 -> 56 ;
57 [label="mean texture <= 19.765\nentropy = 0.952\nsamples = 43\nvalue = [27, 16]\nclass = malignant", fillcolor="#f4ccae"] ;
55 -> 57 ;
58 [label="entropy = 0.0\nsamples = 3\nvalue = [0, 3]\nclass = benign", fillcolor="#399de5"] ;
57 -> 58 ;
59 [label="mean texture <= 20.17\nentropy = 0.91\nsamples = 40\nvalue = [27, 13]\nclass = malignant", fillcolor="#f2be98"] ;
57 -> 59 ;
60 [label="entropy = 0.0\nsamples = 2\nvalue = [2, 0]\nclass = malignant", fillcolor="#e58139"] ;
59 -> 60 ;
61 [label="mean texture <= 20.215\nentropy = 0.927\nsamples = 38\nvalue = [25, 13]\nclass = malignant", fillcolor="#f3c3a0"] ;
59 -> 61 ;
62 [label="entropy = 0.0\nsamples = 1\nvalue = [0, 1]\nclass = benign", fillcolor="#399de5"] ;
61 -> 62 ;
63 [label="entropy = 0.909\nsamples = 37\nvalue = [25, 12]\nclass = malignant", fillcolor="#f1bd98"] ;
61 -> 63 ;
64 [label="mean texture <= 27.345\nentropy = 0.811\nsamples = 4\nvalue = [1, 3]\nclass = benign", fillcolor="#7bbeee"] ;
54 -> 64 ;
65 [label="entropy = 0.0\nsamples = 3\nvalue = [0, 3]\nclass = benign", fillcolor="#399de5"] ;
64 -> 65 ;
66 [label="entropy = 0.0\nsamples = 1\nvalue = [1, 0]\nclass = malignant", fillcolor="#e58139"] ;
64 -> 66 ;
67 [label="entropy = 0.0\nsamples = 6\nvalue = [0, 6]\nclass = benign", fillcolor="#399de5"] ;
41 -> 67 ;
68 [label="mean texture <= 16.395\nentropy = 0.343\nsamples = 172\nvalue = [161, 11]\nclass = malignant", fillcolor="#e78a47"] ;
0 -> 68 [labeldistance=2.5, labelangle=-45, headlabel="False"] ;
69 [label="mean radius <= 17.92\nentropy = 1.0\nsamples = 18\nvalue = [9, 9]\nclass = malignant", fillcolor="#ffffff"] ;
68 -> 69 ;
70 [label="mean radius <= 15.305\nentropy = 0.89\nsamples = 13\nvalue = [4, 9]\nclass = benign", fillcolor="#91c9f1"] ;
69 -> 70 ;
71 [label="entropy = 0.0\nsamples = 3\nvalue = [0, 3]\nclass = benign", fillcolor="#399de5"] ;
70 -> 71 ;
72 [label="mean radius <= 15.585\nentropy = 0.971\nsamples = 10\nvalue = [4, 6]\nclass = benign", fillcolor="#bddef6"] ;
70 -> 72 ;
73 [label="entropy = 0.0\nsamples = 2\nvalue = [2, 0]\nclass = malignant", fillcolor="#e58139"] ;
72 -> 73 ;
74 [label="mean texture <= 14.955\nentropy = 0.811\nsamples = 8\nvalue = [2, 6]\nclass = benign", fillcolor="#7bbeee"] ;
72 -> 74 ;
75 [label="entropy = 0.0\nsamples = 4\nvalue = [0, 4]\nclass = benign", fillcolor="#399de5"] ;
74 -> 75 ;
76 [label="mean texture <= 15.605\nentropy = 1.0\nsamples = 4\nvalue = [2, 2]\nclass = malignant", fillcolor="#ffffff"] ;
74 -> 76 ;
77 [label="entropy = 0.0\nsamples = 2\nvalue = [2, 0]\nclass = malignant", fillcolor="#e58139"] ;
76 -> 77 ;
78 [label="entropy = 0.0\nsamples = 2\nvalue = [0, 2]\nclass = benign", fillcolor="#399de5"] ;
76 -> 78 ;
79 [label="entropy = 0.0\nsamples = 5\nvalue = [5, 0]\nclass = malignant", fillcolor="#e58139"] ;
69 -> 79 ;
80 [label="mean texture <= 19.47\nentropy = 0.1\nsamples = 154\nvalue = [152, 2]\nclass = malignant", fillcolor="#e5833c"] ;
68 -> 80 ;
81 [label="mean texture <= 19.42\nentropy = 0.31\nsamples = 36\nvalue = [34, 2]\nclass = malignant", fillcolor="#e78845"] ;
80 -> 81 ;
82 [label="mean radius <= 16.64\nentropy = 0.187\nsamples = 35\nvalue = [34, 1]\nclass = malignant", fillcolor="#e6853f"] ;
81 -> 82 ;
83 [label="mean radius <= 16.37\nentropy = 0.469\nsamples = 10\nvalue = [9, 1]\nclass = malignant", fillcolor="#e88f4f"] ;
82 -> 83 ;
84 [label="entropy = 0.0\nsamples = 9\nvalue = [9, 0]\nclass = malignant", fillcolor="#e58139"] ;
83 -> 84 ;
85 [label="entropy = 0.0\nsamples = 1\nvalue = [0, 1]\nclass = benign", fillcolor="#399de5"] ;
83 -> 85 ;
86 [label="entropy = 0.0\nsamples = 25\nvalue = [25, 0]\nclass = malignant", fillcolor="#e58139"] ;
82 -> 86 ;
87 [label="entropy = 0.0\nsamples = 1\nvalue = [0, 1]\nclass = benign", fillcolor="#399de5"] ;
81 -> 87 ;
88 [label="entropy = 0.0\nsamples = 118\nvalue = [118, 0]\nclass = malignant", fillcolor="#e58139"] ;
80 -> 88 ;
}