digraph Tree {
node [shape=box, style="filled, rounded", color="black", fontname="helvetica"] ;
edge [fontname="helvetica"] ;
0 [label="mean radius <= 15.045\ngini = 0.468\nsamples = 569\nvalue = [212, 357]\nclass = benign", fillcolor="#afd7f4"] ;
1 [label="mean texture <= 19.61\ngini = 0.224\nsamples = 397\nvalue = [51, 346]\nclass = benign", fillcolor="#56abe9"] ;
0 -> 1 [labeldistance=2.5, labelangle=45, headlabel="True"] ;
2 [label="mean radius <= 14.865\ngini = 0.086\nsamples = 266\nvalue = [12, 254]\nclass = benign", fillcolor="#42a2e6"] ;
1 -> 2 ;
3 [label="mean texture <= 15.53\ngini = 0.075\nsamples = 258\nvalue = [10, 248]\nclass = benign", fillcolor="#41a1e6"] ;
2 -> 3 ;
4 [label="gini = 0.0\nsamples = 95\nvalue = [0, 95]\nclass = benign", fillcolor="#399de5"] ;
3 -> 4 ;
5 [label="mean texture <= 15.58\ngini = 0.115\nsamples = 163\nvalue = [10, 153]\nclass = benign", fillcolor="#46a3e7"] ;
3 -> 5 ;
6 [label="gini = 0.0\nsamples = 1\nvalue = [1, 0]\nclass = malignant", fillcolor="#e58139"] ;
5 -> 6 ;
7 [label="mean radius <= 13.79\ngini = 0.105\nsamples = 162\nvalue = [9, 153]\nclass = benign", fillcolor="#45a3e7"] ;
5 -> 7 ;
8 [label="gini = 0.081\nsamples = 142\nvalue = [6, 136]\nclass = benign", fillcolor="#42a1e6"] ;
7 -> 8 ;
9 [label="gini = 0.255\nsamples = 20\nvalue = [3, 17]\nclass = benign", fillcolor="#5caeea"] ;
7 -> 9 ;
10 [label="mean radius <= 14.895\ngini = 0.375\nsamples = 8\nvalue = [2, 6]\nclass = benign", fillcolor="#7bbeee"] ;
2 -> 10 ;
11 [label="gini = 0.0\nsamples = 1\nvalue = [1, 0]\nclass = malignant", fillcolor="#e58139"] ;
10 -> 11 ;
12 [label="mean radius <= 14.955\ngini = 0.245\nsamples = 7\nvalue = [1, 6]\nclass = benign", fillcolor="#5aade9"] ;
10 -> 12 ;
13 [label="mean radius <= 14.935\ngini = 0.444\nsamples = 3\nvalue = [1, 2]\nclass = benign", fillcolor="#9ccef2"] ;
12 -> 13 ;
14 [label="gini = 0.0\nsamples = 1\nvalue = [0, 1]\nclass = benign", fillcolor="#399de5"] ;
13 -> 14 ;
15 [label="gini = 0.5\nsamples = 2\nvalue = [1, 1]\nclass = malignant", fillcolor="#ffffff"] ;
13 -> 15 ;
16 [label="gini = 0.0\nsamples = 4\nvalue = [0, 4]\nclass = benign", fillcolor="#399de5"] ;
12 -> 16 ;
17 [label="mean radius <= 13.39\ngini = 0.418\nsamples = 131\nvalue = [39, 92]\nclass = benign", fillcolor="#8dc7f0"] ;
1 -> 17 ;
18 [label="mean radius <= 12.305\ngini = 0.214\nsamples = 82\nvalue = [10, 72]\nclass = benign", fillcolor="#54abe9"] ;
17 -> 18 ;
19 [label="mean texture <= 21.38\ngini = 0.071\nsamples = 54\nvalue = [2, 52]\nclass = benign", fillcolor="#41a1e6"] ;
18 -> 19 ;
20 [label="mean texture <= 21.315\ngini = 0.165\nsamples = 22\nvalue = [2, 20]\nclass = benign", fillcolor="#4da7e8"] ;
19 -> 20 ;
21 [label="gini = 0.091\nsamples = 21\nvalue = [1, 20]\nclass = benign", fillcolor="#43a2e6"] ;
20 -> 21 ;
22 [label="gini = 0.0\nsamples = 1\nvalue = [1, 0]\nclass = malignant", fillcolor="#e58139"] ;
20 -> 22 ;
23 [label="gini = 0.0\nsamples = 32\nvalue = [0, 32]\nclass = benign", fillcolor="#399de5"] ;
19 -> 23 ;
24 [label="mean texture <= 21.805\ngini = 0.408\nsamples = 28\nvalue = [8, 20]\nclass = benign", fillcolor="#88c4ef"] ;
18 -> 24 ;
25 [label="mean radius <= 13.26\ngini = 0.165\nsamples = 11\nvalue = [1, 10]\nclass = benign", fillcolor="#4da7e8"] ;
24 -> 25 ;
26 [label="gini = 0.0\nsamples = 9\nvalue = [0, 9]\nclass = benign", fillcolor="#399de5"] ;
25 -> 26 ;
27 [label="gini = 0.5\nsamples = 2\nvalue = [1, 1]\nclass = malignant", fillcolor="#ffffff"] ;
25 -> 27 ;
28 [label="mean texture <= 27.46\ngini = 0.484\nsamples = 17\nvalue = [7, 10]\nclass = benign", fillcolor="#c4e2f7"] ;
24 -> 28 ;
29 [label="gini = 0.497\nsamples = 13\nvalue = [7, 6]\nclass = malignant", fillcolor="#fbede3"] ;
28 -> 29 ;
30 [label="gini = 0.0\nsamples = 4\nvalue = [0, 4]\nclass = benign", fillcolor="#399de5"] ;
28 -> 30 ;
31 [label="mean texture <= 25.31\ngini = 0.483\nsamples = 49\nvalue = [29, 20]\nclass = malignant", fillcolor="#f7d8c2"] ;
17 -> 31 ;
32 [label="mean radius <= 13.485\ngini = 0.454\nsamples = 43\nvalue = [28.0, 15.0]\nclass = malignant", fillcolor="#f3c4a3"] ;
31 -> 32 ;
33 [label="gini = 0.0\nsamples = 4\nvalue = [4, 0]\nclass = malignant", fillcolor="#e58139"] ;
32 -> 33 ;
34 [label="mean radius <= 13.6\ngini = 0.473\nsamples = 39\nvalue = [24, 15]\nclass = malignant", fillcolor="#f5d0b5"] ;
32 -> 34 ;
35 [label="gini = 0.0\nsamples = 2\nvalue = [0, 2]\nclass = benign", fillcolor="#399de5"] ;
34 -> 35 ;
36 [label="gini = 0.456\nsamples = 37\nvalue = [24, 13]\nclass = malignant", fillcolor="#f3c5a4"] ;
34 -> 36 ;
37 [label="mean radius <= 14.47\ngini = 0.278\nsamples = 6\nvalue = [1, 5]\nclass = benign", fillcolor="#61b1ea"] ;
31 -> 37 ;
38 [label="gini = 0.0\nsamples = 4\nvalue = [0, 4]\nclass = benign", fillcolor="#399de5"] ;
37 -> 38 ;
39 [label="mean texture <= 26.48\ngini = 0.5\nsamples = 2\nvalue = [1, 1]\nclass = malignant", fillcolor="#ffffff"] ;
37 -> 39 ;
40 [label="gini = 0.0\nsamples = 1\nvalue = [0, 1]\nclass = benign", fillcolor="#399de5"] ;
39 -> 40 ;
41 [label="gini = 0.0\nsamples = 1\nvalue = [1, 0]\nclass = malignant", fillcolor="#e58139"] ;
39 -> 41 ;
42 [label="mean texture <= 16.395\ngini = 0.12\nsamples = 172\nvalue = [161, 11]\nclass = malignant", fillcolor="#e78a47"] ;
0 -> 42 [labeldistance=2.5, labelangle=-45, headlabel="False"] ;
43 [label="mean radius <= 17.92\ngini = 0.5\nsamples = 18\nvalue = [9, 9]\nclass = malignant", fillcolor="#ffffff"] ;
42 -> 43 ;
44 [label="mean radius <= 15.305\ngini = 0.426\nsamples = 13\nvalue = [4, 9]\nclass = benign", fillcolor="#91c9f1"] ;
43 -> 44 ;
45 [label="gini = 0.0\nsamples = 3\nvalue = [0, 3]\nclass = benign", fillcolor="#399de5"] ;
44 -> 45 ;
46 [label="mean radius <= 15.585\ngini = 0.48\nsamples = 10\nvalue = [4, 6]\nclass = benign", fillcolor="#bddef6"] ;
44 -> 46 ;
47 [label="gini = 0.0\nsamples = 2\nvalue = [2, 0]\nclass = malignant", fillcolor="#e58139"] ;
46 -> 47 ;
48 [label="mean texture <= 14.955\ngini = 0.375\nsamples = 8\nvalue = [2, 6]\nclass = benign", fillcolor="#7bbeee"] ;
46 -> 48 ;
49 [label="gini = 0.0\nsamples = 4\nvalue = [0, 4]\nclass = benign", fillcolor="#399de5"] ;
48 -> 49 ;
50 [label="gini = 0.5\nsamples = 4\nvalue = [2, 2]\nclass = malignant", fillcolor="#ffffff"] ;
48 -> 50 ;
51 [label="gini = 0.0\nsamples = 5\nvalue = [5, 0]\nclass = malignant", fillcolor="#e58139"] ;
43 -> 51 ;
52 [label="mean texture <= 19.47\ngini = 0.026\nsamples = 154\nvalue = [152, 2]\nclass = malignant", fillcolor="#e5833c"] ;
42 -> 52 ;
53 [label="mean texture <= 19.42\ngini = 0.105\nsamples = 36\nvalue = [34, 2]\nclass = malignant", fillcolor="#e78845"] ;
52 -> 53 ;
54 [label="mean radius <= 16.64\ngini = 0.056\nsamples = 35\nvalue = [34, 1]\nclass = malignant", fillcolor="#e6853f"] ;
53 -> 54 ;
55 [label="mean radius <= 16.37\ngini = 0.18\nsamples = 10\nvalue = [9, 1]\nclass = malignant", fillcolor="#e88f4f"] ;
54 -> 55 ;
56 [label="gini = 0.0\nsamples = 9\nvalue = [9, 0]\nclass = malignant", fillcolor="#e58139"] ;
55 -> 56 ;
57 [label="gini = 0.0\nsamples = 1\nvalue = [0, 1]\nclass = benign", fillcolor="#399de5"] ;
55 -> 57 ;
58 [label="gini = 0.0\nsamples = 25\nvalue = [25, 0]\nclass = malignant", fillcolor="#e58139"] ;
54 -> 58 ;
59 [label="gini = 0.0\nsamples = 1\nvalue = [0, 1]\nclass = benign", fillcolor="#399de5"] ;
53 -> 59 ;
60 [label="gini = 0.0\nsamples = 118\nvalue = [118, 0]\nclass = malignant", fillcolor="#e58139"] ;
52 -> 60 ;
}